/*!
 * The following copyright notice may not be removed under any circumstances.
 * 
 * Copyright:
 * Created by Sizenko Alexander. © 2008 Style-7. All rights reserved.
 * http://www.styleseven.com
 * 
 * Manufacturer:
 * Created by Sizenko Alexander.
 * 
 * Designer:
 * Sizenko Alexander
 */
Cufon.registerFont({"w":520,"face":{"font-family":"Digital-7 Italic","font-weight":400,"font-style":"italic","font-stretch":"normal","units-per-em":"1100","panose-1":"2 0 0 0 0 0 0 0 0 0","ascent":"880","descent":"-220","bbox":"6 -840 561 120","underline-thickness":"70","underline-position":"-85","unicode-range":"U+0020-U+2030"},"glyphs":{" ":{"w":300},"!":{"d":"109,-350r18,20r-17,170r-80,0r13,-130xm57,-430r21,-210r38,-80v26,7,41,23,45,50r-28,280r-22,20xm94,0r-80,0r8,-80r80,0","w":180},"\"":{"d":"150,-560r-44,40r-36,-40r16,-160r80,0xm311,-561r-44,40r-36,-40r16,-160r80,0","w":341},"#":{"d":"302,-480r36,40r-44,40r-40,0r-36,-40r44,-40r40,0xm286,-320r36,40r-44,40r-40,0r-36,-40r44,-40r40,0xm152,-380r44,-40r36,40r-4,40r-44,40r-36,-40xm312,-380r44,-40r36,40r-4,40r-44,40r-36,-40xm170,-560r44,-40r36,40r-6,60r-44,40r-36,-40xm330,-560r44,-40r36,40r-6,60r-44,40r-36,-40xm296,-221r44,-40r36,40r-6,61r-44,40r-36,-40xm136,-220r44,-40r36,40r-6,61r-44,40r-36,-40xm126,-320r36,40r-44,40r-40,0r-36,-40r44,-40r40,0xm446,-319r36,40r-44,40r-40,0r-36,-40r44,-40r40,0xm462,-480r36,40r-44,40r-40,0r-36,-40r44,-40r40,0xm142,-479r36,40r-44,40r-40,0r-36,-40r44,-40r40,0","w":540},"$":{"d":"394,-400r36,40r-44,40r-260,0r-36,-40r44,-40r260,0xm449,-350r18,20r-28,280v-9,27,-28,43,-55,50r-22,-80r21,-210xm364,0r-300,0v-26,-7,-41,-23,-45,-50r83,-30r240,0xm156,-620r-19,190r-66,60r-18,-20r26,-260xm159,-640r-77,-30v9,-27,28,-43,55,-50r319,0v26,7,41,23,45,50r-83,30r-259,0xm269,-750r5,-50r44,-40r36,40r-5,50r-80,0xm237,-430r18,-180r80,0r-18,180r-80,0xm205,-110r18,-180r80,0r-18,180r-80,0xm271,30r-5,50r-44,40r-36,-40r5,-50r80,0"},"%":{"d":"323,-478r143,-242v40,0,65,13,76,40r-185,310r-45,0xm277,-242r-143,242v-40,0,-65,-13,-76,-40r185,-310r45,0xm218,-640r-60,0r-77,-30v9,-27,28,-43,55,-50r120,0xm156,-620r-6,60r-38,80v-26,-7,-41,-23,-45,-50r12,-120xm170,-560r60,0r77,30v-9,27,-28,43,-55,50r-120,0xm232,-580r6,-60r38,-80v26,7,41,23,45,50r-12,120xm444,-100r6,-60r38,-80v26,7,41,23,45,50r-12,120xm430,-160r-60,0r-77,-30v9,-27,28,-43,55,-50r120,0xm368,-140r-6,60r-38,80v-26,-7,-41,-23,-45,-50r12,-120xm382,-80r60,0r77,30v-9,27,-28,43,-55,50r-120,0","w":600},"&":{"d":"394,-400r36,40r-44,40r-260,0r-36,-40r44,-40r260,0xm449,-350r18,20r-23,230r-50,0r-27,-30r16,-160xm454,0r-390,0v-26,-7,-41,-23,-45,-50r83,-30r320,0r54,60xm21,-70r26,-260r22,-20r54,60r-19,190xm354,-600r-160,0r-77,-30v9,-27,28,-43,55,-50r220,0xm192,-580r-11,110r-66,60r-18,-20r18,-180xm361,-470r13,-130r38,-80v26,7,41,23,45,50r-20,200r-22,20xm432,20r-5,50r-22,20r-54,-60r1,-10r80,0","w":560},"'":{"d":"150,-560r-44,40r-36,-40r16,-160r80,0","w":180},"(":{"d":"288,-640r-110,0r-36,-40r44,-40r110,0r36,40xm71,-370r-18,-20r23,-230r55,-50r27,30r-21,210xm268,-40r-44,40r-110,0r-36,-40r44,-40r110,0xm123,-290r-21,210r-33,30r-45,-50r23,-230r22,-20","w":350},")":{"d":"62,-80r110,0r36,40r-44,40r-110,0r-36,-40xm279,-350r18,20r-23,230r-55,50r-27,-30r21,-210xm82,-680r44,-40r110,0r36,40r-44,40r-110,0xm227,-430r21,-210r33,-30r45,50r-23,230r-22,20","w":350},"*":{"d":"183,-430r8,-80r44,-40r36,40r-8,80r74,-40r53,15r-20,55r-73,40r65,40r9,55r-56,15r-66,-40r-8,80r-44,40r-36,-40r8,-80r-74,40r-54,-15r21,-55r73,-40r-65,-40r-10,-55r57,-15","w":430},"+":{"d":"184,-400r9,-90r44,-40r36,40r-9,90r90,0r36,40r-44,40r-90,0r-9,90r-44,40r-36,-40r9,-90r-90,0r-36,-40r44,-40r90,0","w":440},",":{"d":"86,80r-44,40r-36,-40r16,-160r80,0","w":180},"-":{"d":"354,-400r36,40r-44,40r-260,0r-36,-40r44,-40r260,0","w":440},".":{"d":"94,0r-80,0r8,-80r80,0","w":180},"\/":{"d":"283,-478r143,-242v40,0,65,13,76,40r-185,310r-45,0xm237,-242r-143,242v-40,0,-65,-13,-76,-40r185,-310r45,0"},"0":{"d":"449,-350r18,20r-28,280v-9,27,-28,43,-55,50r-22,-80r21,-210xm364,0r-300,0v-26,-7,-41,-23,-45,-50r83,-30r240,0xm21,-70r26,-260r22,-20r54,60r-19,190xm398,-640r-239,0r-77,-30v9,-27,28,-43,55,-50r299,0xm156,-620r-19,190r-66,60r-18,-20r26,-260xm397,-430r21,-210r38,-80v26,7,41,23,45,50r-28,280r-22,20"},"1":{"d":"109,-350r18,20r-28,280v-9,27,-28,43,-55,50r-22,-80r21,-210xm57,-430r21,-210r38,-80v26,7,41,23,45,50r-28,280r-22,20","w":180},"2":{"d":"394,-400r36,40r-44,40r-260,0r-36,-40r44,-40r260,0xm394,0r-330,0v-26,-7,-41,-23,-45,-50r83,-30r270,0xm21,-70r26,-260r22,-20r54,60r-19,190xm398,-640r-239,0r-77,-30v9,-27,28,-43,55,-50r299,0xm397,-430r21,-210r38,-80v26,7,41,23,45,50r-28,280r-22,20"},"3":{"d":"394,-400r36,40r-44,40r-260,0r-36,-40r44,-40r260,0xm449,-350r18,20r-28,280v-9,27,-28,43,-55,50r-22,-80r21,-210xm364,0r-300,0v-26,-7,-41,-23,-45,-50r83,-30r240,0xm398,-640r-239,0r-77,-30v9,-27,28,-43,55,-50r299,0xm397,-430r21,-210r38,-80v26,7,41,23,45,50r-28,280r-22,20"},"4":{"d":"394,-400r36,40r-44,40r-260,0r-36,-40r44,-40r260,0xm449,-350r18,20r-28,280v-9,27,-28,43,-55,50r-22,-80r21,-210xm159,-650r-22,220r-66,60r-18,-20r29,-290xm397,-430r21,-210r38,-80v26,7,41,23,45,50r-28,280r-22,20"},"5":{"d":"394,-400r36,40r-44,40r-260,0r-36,-40r44,-40r260,0xm449,-350r18,20r-28,280v-9,27,-28,43,-55,50r-22,-80r21,-210xm364,0r-300,0v-26,-7,-41,-23,-45,-50r83,-30r240,0xm428,-640r-269,0r-77,-30v9,-27,28,-43,55,-50r329,0xm156,-620r-19,190r-66,60r-18,-20r26,-260"},"6":{"d":"394,-400r36,40r-44,40r-260,0r-36,-40r44,-40r260,0xm449,-350r18,20r-28,280v-9,27,-28,43,-55,50r-22,-80r21,-210xm364,0r-300,0v-26,-7,-41,-23,-45,-50r83,-30r240,0xm21,-70r26,-260r22,-20r54,60r-19,190xm428,-640r-269,0r-77,-30v9,-27,28,-43,55,-50r329,0xm156,-620r-19,190r-66,60r-18,-20r26,-260"},"7":{"d":"449,-350r18,20r-28,280v-9,27,-28,43,-55,50r-22,-80r21,-210xm398,-640r-239,0r-77,-30v9,-27,28,-43,55,-50r299,0xm156,-620r-19,190r-66,60r-18,-20r26,-260xm397,-430r21,-210r38,-80v26,7,41,23,45,50r-28,280r-22,20"},"8":{"d":"394,-400r36,40r-44,40r-260,0r-36,-40r44,-40r260,0xm449,-350r18,20r-28,280v-9,27,-28,43,-55,50r-22,-80r21,-210xm364,0r-300,0v-26,-7,-41,-23,-45,-50r83,-30r240,0xm21,-70r26,-260r22,-20r54,60r-19,190xm398,-640r-239,0r-77,-30v9,-27,28,-43,55,-50r299,0xm156,-620r-19,190r-66,60r-18,-20r26,-260xm397,-430r21,-210r38,-80v26,7,41,23,45,50r-28,280r-22,20"},"9":{"d":"394,-400r36,40r-44,40r-260,0r-36,-40r44,-40r260,0xm449,-350r18,20r-28,280v-9,27,-28,43,-55,50r-22,-80r21,-210xm364,0r-300,0v-26,-7,-41,-23,-45,-50r83,-30r240,0xm398,-640r-239,0r-77,-30v9,-27,28,-43,55,-50r299,0xm156,-620r-19,190r-66,60r-18,-20r26,-260xm397,-430r21,-210r38,-80v26,7,41,23,45,50r-28,280r-22,20"},":":{"d":"109,-160r-80,0r8,-80r80,0xm142,-480r-80,0r8,-80r80,0","w":180},";":{"d":"142,-480r-80,0r8,-80r80,0xm86,80r-44,40r-36,-40r16,-160r80,0","w":180},"<":{"d":"161,-370r-110,0r220,-200r40,0r26,39xm303,-189r-34,39r-40,0r-180,-200r110,0","w":370},"=":{"d":"362,-480r36,40r-44,40r-260,0r-36,-40r44,-40r260,0xm346,-319r36,40r-44,40r-260,0r-36,-40r44,-40r260,0","w":440},">":{"d":"67,-531r34,-39r40,0r180,200r-110,0xm209,-350r110,0r-220,200r-40,0r-26,-39","w":370},"?":{"d":"394,-400r36,40r-44,40r-260,0r-36,-40r44,-40r260,0xm30,-160r17,-170r22,-20r54,60r-13,130r-80,0xm398,-640r-239,0r-77,-30v9,-27,28,-43,55,-50r299,0xm397,-430r21,-210r38,-80v26,7,41,23,45,50r-28,280r-22,20xm94,0r-80,0r8,-80r80,0"},"@":{"d":"449,-350r18,20r-12,120v-9,27,-28,43,-55,50r-22,-80r5,-50xm364,0r-300,0v-26,-7,-41,-23,-45,-50r83,-30r240,0xm21,-70r26,-260r22,-20r54,60r-19,190xm398,-640r-239,0r-77,-30v9,-27,28,-43,55,-50r299,0xm156,-620r-19,190r-66,60r-18,-20r26,-260xm397,-430r21,-210r38,-80v26,7,41,23,45,50r-28,280r-22,20xm380,-160r-140,1v-26,-7,-41,-23,-45,-50r83,-31r80,0xm197,-230r10,-100r22,-20r54,60r-3,30xm300,-460r-3,30r-66,60r-18,-20r10,-100xm382,-480r-80,0r-77,-31v9,-27,28,-43,55,-50r110,1"},"A":{"d":"394,-400r36,40r-44,40r-260,0r-36,-40r44,-40r260,0xm449,-350r18,20r-28,280v-9,27,-28,43,-55,50r-22,-80r21,-210xm398,-640r-239,0r-77,-30v9,-27,28,-43,55,-50r299,0xm156,-620r-19,190r-66,60r-18,-20r26,-260xm397,-430r21,-210r38,-80v26,7,41,23,45,50r-28,280r-22,20xm123,-290r-21,210r-38,80v-26,-7,-41,-23,-45,-50r28,-280r22,-20"},"B":{"d":"394,-400r36,40r-44,40r-260,0r-36,-40r44,-40r260,0xm21,-70r26,-260r22,-20r54,60r-19,190xm398,-640r-240,0r-77,-30r5,-50r320,0r36,40xm156,-620r-19,190r-66,60r-18,-20r26,-260xm397,-430r21,-210r33,-30r45,50r-23,230r-22,20xm449,-350r18,20r-23,230r-55,50r-27,-30r21,-210xm377,-40r-44,40r-319,0r5,-50r83,-30r239,0"},"C":{"d":"394,0r-330,0v-26,-7,-41,-23,-45,-50r83,-30r270,0xm21,-70r26,-260r22,-20r54,60r-19,190xm428,-640r-269,0r-77,-30v9,-27,28,-43,55,-50r329,0xm156,-620r-19,190r-66,60r-18,-20r26,-260","w":480},"D":{"d":"21,-70r26,-260r22,-20r54,60r-19,190xm398,-640r-240,0r-77,-30r5,-50r320,0r36,40xm156,-620r-19,190r-66,60r-18,-20r26,-260xm397,-430r21,-210r33,-30r45,50r-23,230r-22,20xm449,-350r18,20r-23,230r-55,50r-27,-30r21,-210xm377,-40r-44,40r-319,0r5,-50r83,-30r239,0"},"E":{"d":"394,-400r36,40r-44,40r-260,0r-36,-40r44,-40r260,0xm394,0r-330,0v-26,-7,-41,-23,-45,-50r83,-30r270,0xm21,-70r26,-260r22,-20r54,60r-19,190xm428,-640r-269,0r-77,-30v9,-27,28,-43,55,-50r329,0xm156,-620r-19,190r-66,60r-18,-20r26,-260","w":480},"F":{"d":"394,-400r36,40r-44,40r-260,0r-36,-40r44,-40r260,0xm428,-640r-269,0r-77,-30v9,-27,28,-43,55,-50r329,0xm156,-620r-19,190r-66,60r-18,-20r26,-260xm123,-290r-21,210r-38,80v-26,-7,-41,-23,-45,-50r28,-280r22,-20","w":480},"G":{"d":"394,-400r36,40r-44,40r-90,0r-36,-40r44,-40r90,0xm449,-350r18,20r-28,280v-9,27,-28,43,-55,50r-22,-80r21,-210xm364,0r-300,0v-26,-7,-41,-23,-45,-50r83,-30r240,0xm21,-70r26,-260r22,-20r54,60r-19,190xm428,-640r-269,0r-77,-30v9,-27,28,-43,55,-50r329,0xm156,-620r-19,190r-66,60r-18,-20r26,-260"},"H":{"d":"394,-400r36,40r-44,40r-260,0r-36,-40r44,-40r260,0xm449,-350r18,20r-28,280v-9,27,-28,43,-55,50r-22,-80r21,-210xm397,-430r21,-210r38,-80v26,7,41,23,45,50r-28,280r-22,20xm123,-290r-21,210r-38,80v-26,-7,-41,-23,-45,-50r28,-280r22,-20xm70,-360r-18,-20r28,-280v9,-27,28,-43,55,-50r22,80r-21,210"},"I":{"d":"57,-430r21,-210r38,-80v26,7,41,23,45,50r-28,280r-22,20xm110,-360r18,20r-28,280v-9,27,-28,43,-55,50r-22,-80r21,-210","w":180},"J":{"d":"449,-350r18,20r-28,280v-9,27,-28,43,-55,50r-22,-80r21,-210xm364,0r-300,0v-26,-7,-41,-23,-45,-50r83,-30r240,0xm21,-70r26,-260r22,-20r54,60r-19,190xm397,-430r21,-210r38,-80v26,7,41,23,45,50r-28,280r-22,20"},"K":{"d":"394,-400r36,40r-44,40r-260,0r-36,-40r44,-40r260,0xm449,-350r18,20r-28,280v-9,27,-28,43,-55,50r-22,-80r21,-210xm162,-480r264,-240v40,0,65,13,76,40r-286,260r-60,0xm123,-290r-21,210r-38,80v-26,-7,-41,-23,-45,-50r28,-280r22,-20xm71,-370r-18,-20r28,-280v9,-27,28,-43,55,-50r22,80r-21,210"},"L":{"d":"123,-290r-21,210r-38,80v-26,-7,-41,-23,-45,-50r28,-280r22,-20xm122,-80r240,0r77,30v-9,27,-28,43,-55,50r-300,0xm71,-370r-18,-20r28,-280v9,-27,28,-43,55,-50r22,80r-21,210"},"M":{"d":"303,-390r-44,40r-36,-40r23,-230r80,0xm449,-350r18,20r-28,280v-9,27,-28,43,-55,50r-22,-80r21,-210xm398,-640r-239,0r-77,-30v9,-27,28,-43,55,-50r299,0xm156,-620r-19,190r-66,60r-18,-20r26,-260xm397,-430r21,-210r38,-80v26,7,41,23,45,50r-28,280r-22,20xm123,-290r-21,210r-38,80v-26,-7,-41,-23,-45,-50r28,-280r22,-20"},"N":{"d":"123,-290r-21,210r-38,80v-26,-7,-41,-23,-45,-50r28,-280r22,-20xm376,-420r-70,0r-135,-150r6,-60r60,0r144,160xm449,-350r18,20r-28,280v-9,27,-28,43,-55,50r-22,-80r21,-210xm396,-420r21,-210r38,-80v26,7,41,23,45,50r-28,280r-22,20xm70,-360r-18,-20r28,-280v9,-27,28,-43,55,-50r22,80r-21,210"},"O":{"d":"398,-640r-220,0r-36,-40r44,-40r220,0r36,40xm397,-430r21,-210r33,-30r45,50r-23,230r-22,20xm449,-350r18,20r-23,230r-55,50r-27,-30r21,-210xm71,-370r-18,-20r23,-230r55,-50r27,30r-21,210xm378,-40r-44,40r-220,0r-36,-40r44,-40r220,0xm123,-290r-21,210r-33,30r-45,-50r23,-230r22,-20"},"P":{"d":"394,-400r36,40r-44,40r-260,0r-36,-40r44,-40r260,0xm398,-640r-240,0r-77,-30r5,-50r320,0r36,40xm156,-620r-19,190r-66,60r-18,-20r26,-260xm397,-430r21,-210r33,-30r45,50r-23,230r-22,20xm123,-290r-21,210r-38,80v-26,-7,-41,-23,-45,-50r28,-280r22,-20"},"Q":{"d":"449,-350r18,20r-24,240r-72,-80r12,-120xm344,0r-280,0v-26,-7,-41,-23,-45,-50r83,-30r170,0xm21,-70r26,-260r22,-20r54,60r-19,190xm398,-640r-239,0r-77,-30v9,-27,28,-43,55,-50r299,0xm156,-620r-19,190r-66,60r-18,-20r26,-260xm397,-430r21,-210r38,-80v26,7,41,23,45,50r-28,280r-22,20xm272,-180r60,0r117,130r-6,60r-60,0r-117,-130","w":530},"R":{"d":"394,-400r36,40r-44,40r-260,0r-36,-40r44,-40r260,0xm144,-300r60,0r234,260v-16,27,-44,40,-84,40r-216,-240xm123,-290r-21,210r-38,80v-26,-7,-41,-23,-45,-50r28,-280r22,-20xm398,-640r-239,0r-77,-30v9,-27,28,-43,55,-50r299,0xm397,-430r21,-210r38,-80v26,7,41,23,45,50r-28,280r-22,20xm156,-620r-19,190r-66,60r-18,-20r26,-260"},"S":{"d":"394,-400r36,40r-44,40r-260,0r-36,-40r44,-40r260,0xm449,-350r18,20r-28,280v-9,27,-28,43,-55,50r-22,-80r21,-210xm364,0r-300,0v-26,-7,-41,-23,-45,-50r83,-30r240,0xm156,-620r-19,190r-66,60r-18,-20r26,-260xm159,-640r-77,-30v9,-27,28,-43,55,-50r319,0v26,7,41,23,45,50r-83,30r-259,0"},"T":{"d":"258,-350r36,40r-26,260v-9,27,-28,43,-55,50r-22,-80r23,-230xm224,-410r21,-210r80,0r-21,210r-44,40xm158,-640r-77,-30v9,-27,28,-43,55,-50r319,0v26,7,41,23,45,50r-83,30r-259,0","w":519},"U":{"d":"449,-350r18,20r-28,280v-9,27,-28,43,-55,50r-22,-80r21,-210xm364,0r-300,0v-26,-7,-41,-23,-45,-50r83,-30r240,0xm21,-70r26,-260r22,-20r54,60r-19,190xm397,-430r21,-210r38,-80v26,7,41,23,45,50r-28,280r-22,20xm70,-360r-18,-20r28,-280v9,-27,28,-43,55,-50r22,80r-21,210"},"V":{"d":"70,-360r-18,-20r28,-280v9,-27,28,-43,55,-50r22,80r-21,210xm396,-420r21,-210r38,-80v26,7,41,23,45,50r-28,280r-22,20xm226,-120r-12,120r-174,-260r6,-60r22,-20r54,60xm382,-280r66,-60r18,20r-6,60r-226,260r12,-120"},"W":{"d":"274,-100r-80,0r23,-230r44,-40r36,40xm397,-430r21,-210r38,-80v26,7,41,23,45,50r-28,280r-22,20xm364,0r-299,0v-26,-7,-41,-23,-45,-50r83,-30r239,0xm21,-70r26,-260r22,-20r54,60r-19,190xm449,-350r18,20r-28,280v-9,27,-28,43,-55,50r-22,-80r21,-210xm71,-370r-18,-20r28,-280v9,-27,28,-43,55,-50r22,80r-21,210"},"X":{"d":"269,-350r45,0r123,310v-16,27,-44,40,-84,40r-95,-242xm283,-478r143,-242v40,0,65,13,76,40r-185,310r-45,0xm237,-242r-143,242v-40,0,-65,-13,-76,-40r185,-310r45,0xm251,-370r-45,0r-123,-310v16,-27,44,-40,84,-40r95,243"},"Y":{"d":"394,-400r36,40r-44,40r-260,0r-36,-40r44,-40r260,0xm449,-350r18,20r-28,280v-9,27,-28,43,-55,50r-22,-80r21,-210xm364,0r-300,0v-26,-7,-41,-23,-45,-50r83,-30r240,0xm159,-650r-22,220r-66,60r-18,-20r29,-290xm397,-430r21,-210r38,-80v26,7,41,23,45,50r-28,280r-22,20"},"Z":{"d":"394,0r-280,0r48,-80r210,0xm358,-640r-199,0r-77,-30v9,-27,28,-43,55,-50r269,0xm267,-430r159,-290v40,0,65,13,76,40r-181,310r-60,0xm263,-290r-169,290v-40,0,-65,-13,-76,-40r191,-310r60,0"},"[":{"d":"21,-70r26,-260r22,-20r54,60r-19,190xm228,-640r-69,0r-77,-30v9,-27,28,-43,55,-50r139,0r18,20xm156,-620r-19,190r-66,60r-18,-20r26,-260xm226,-20r-22,20r-139,0v-26,-7,-41,-23,-45,-50r83,-30r69,0","w":310},"\\":{"d":"268,-350r45,0r123,310v-16,27,-44,40,-84,40r-95,-242xm250,-370r-45,0r-123,-310v16,-27,44,-40,84,-40r95,243","w":518},"]":{"d":"239,-350r18,20r-28,280v-9,27,-28,43,-55,50r-22,-80r21,-210xm188,-640r-50,0r-54,-60r22,-20r120,0xm187,-430r21,-210r38,-80v26,7,41,23,45,50r-28,280r-22,20xm154,0r-120,0r-18,-20r66,-60r50,0","w":310},"^":{"d":"294,-610r11,-110r180,200r-4,40r-42,30xm98,-450r-36,-30r4,-40r220,-200r-12,110","w":519},"_":{"d":"361,-80r77,30v-9,27,-28,43,-55,50r-319,0v-26,-7,-41,-23,-45,-50r83,-30r259,0","w":519},"`":{"d":"255,-610r-4,40r-41,10r-126,-140r14,-40r40,0","w":280},"a":{"d":"394,-400r36,40r-44,40r-260,0r-36,-40r44,-40r260,0xm449,-350r18,20r-28,280v-9,27,-28,43,-55,50r-22,-80r21,-210xm398,-640r-239,0r-77,-30v9,-27,28,-43,55,-50r299,0xm156,-620r-19,190r-66,60r-18,-20r26,-260xm397,-430r21,-210r38,-80v26,7,41,23,45,50r-28,280r-22,20xm123,-290r-21,210r-38,80v-26,-7,-41,-23,-45,-50r28,-280r22,-20"},"b":{"d":"394,-400r36,40r-44,40r-260,0r-36,-40r44,-40r260,0xm21,-70r26,-260r22,-20r54,60r-19,190xm398,-640r-240,0r-77,-30r5,-50r320,0r36,40xm156,-620r-19,190r-66,60r-18,-20r26,-260xm397,-430r21,-210r33,-30r45,50r-23,230r-22,20xm449,-350r18,20r-23,230r-55,50r-27,-30r21,-210xm377,-40r-44,40r-319,0r5,-50r83,-30r239,0"},"c":{"d":"394,0r-330,0v-26,-7,-41,-23,-45,-50r83,-30r270,0xm21,-70r26,-260r22,-20r54,60r-19,190xm428,-640r-269,0r-77,-30v9,-27,28,-43,55,-50r329,0xm156,-620r-19,190r-66,60r-18,-20r26,-260","w":480},"d":{"d":"21,-70r26,-260r22,-20r54,60r-19,190xm398,-640r-240,0r-77,-30r5,-50r320,0r36,40xm156,-620r-19,190r-66,60r-18,-20r26,-260xm397,-430r21,-210r33,-30r45,50r-23,230r-22,20xm449,-350r18,20r-23,230r-55,50r-27,-30r21,-210xm377,-40r-44,40r-319,0r5,-50r83,-30r239,0"},"e":{"d":"394,-400r36,40r-44,40r-260,0r-36,-40r44,-40r260,0xm394,0r-330,0v-26,-7,-41,-23,-45,-50r83,-30r270,0xm21,-70r26,-260r22,-20r54,60r-19,190xm428,-640r-269,0r-77,-30v9,-27,28,-43,55,-50r329,0xm156,-620r-19,190r-66,60r-18,-20r26,-260","w":480},"f":{"d":"394,-400r36,40r-44,40r-260,0r-36,-40r44,-40r260,0xm428,-640r-269,0r-77,-30v9,-27,28,-43,55,-50r329,0xm156,-620r-19,190r-66,60r-18,-20r26,-260xm123,-290r-21,210r-38,80v-26,-7,-41,-23,-45,-50r28,-280r22,-20","w":480},"g":{"d":"394,-400r36,40r-44,40r-90,0r-36,-40r44,-40r90,0xm449,-350r18,20r-28,280v-9,27,-28,43,-55,50r-22,-80r21,-210xm364,0r-300,0v-26,-7,-41,-23,-45,-50r83,-30r240,0xm21,-70r26,-260r22,-20r54,60r-19,190xm428,-640r-269,0r-77,-30v9,-27,28,-43,55,-50r329,0xm156,-620r-19,190r-66,60r-18,-20r26,-260"},"h":{"d":"394,-400r36,40r-44,40r-260,0r-36,-40r44,-40r260,0xm449,-350r18,20r-28,280v-9,27,-28,43,-55,50r-22,-80r21,-210xm397,-430r21,-210r38,-80v26,7,41,23,45,50r-28,280r-22,20xm123,-290r-21,210r-38,80v-26,-7,-41,-23,-45,-50r28,-280r22,-20xm70,-360r-18,-20r28,-280v9,-27,28,-43,55,-50r22,80r-21,210"},"i":{"d":"57,-430r21,-210r38,-80v26,7,41,23,45,50r-28,280r-22,20xm110,-360r18,20r-28,280v-9,27,-28,43,-55,50r-22,-80r21,-210","w":180},"j":{"d":"449,-350r18,20r-28,280v-9,27,-28,43,-55,50r-22,-80r21,-210xm364,0r-300,0v-26,-7,-41,-23,-45,-50r83,-30r240,0xm21,-70r26,-260r22,-20r54,60r-19,190xm397,-430r21,-210r38,-80v26,7,41,23,45,50r-28,280r-22,20"},"k":{"d":"394,-400r36,40r-44,40r-260,0r-36,-40r44,-40r260,0xm449,-350r18,20r-28,280v-9,27,-28,43,-55,50r-22,-80r21,-210xm162,-480r264,-240v40,0,65,13,76,40r-286,260r-60,0xm123,-290r-21,210r-38,80v-26,-7,-41,-23,-45,-50r28,-280r22,-20xm71,-370r-18,-20r28,-280v9,-27,28,-43,55,-50r22,80r-21,210"},"l":{"d":"123,-290r-21,210r-38,80v-26,-7,-41,-23,-45,-50r28,-280r22,-20xm122,-80r240,0r77,30v-9,27,-28,43,-55,50r-300,0xm71,-370r-18,-20r28,-280v9,-27,28,-43,55,-50r22,80r-21,210"},"m":{"d":"303,-390r-44,40r-36,-40r23,-230r80,0xm449,-350r18,20r-28,280v-9,27,-28,43,-55,50r-22,-80r21,-210xm398,-640r-239,0r-77,-30v9,-27,28,-43,55,-50r299,0xm156,-620r-19,190r-66,60r-18,-20r26,-260xm397,-430r21,-210r38,-80v26,7,41,23,45,50r-28,280r-22,20xm123,-290r-21,210r-38,80v-26,-7,-41,-23,-45,-50r28,-280r22,-20"},"n":{"d":"123,-290r-21,210r-38,80v-26,-7,-41,-23,-45,-50r28,-280r22,-20xm376,-420r-70,0r-135,-150r6,-60r60,0r144,160xm449,-350r18,20r-28,280v-9,27,-28,43,-55,50r-22,-80r21,-210xm396,-420r21,-210r38,-80v26,7,41,23,45,50r-28,280r-22,20xm70,-360r-18,-20r28,-280v9,-27,28,-43,55,-50r22,80r-21,210"},"o":{"d":"398,-640r-220,0r-36,-40r44,-40r220,0r36,40xm397,-430r21,-210r33,-30r45,50r-23,230r-22,20xm449,-350r18,20r-23,230r-55,50r-27,-30r21,-210xm71,-370r-18,-20r23,-230r55,-50r27,30r-21,210xm378,-40r-44,40r-220,0r-36,-40r44,-40r220,0xm123,-290r-21,210r-33,30r-45,-50r23,-230r22,-20"},"p":{"d":"394,-400r36,40r-44,40r-260,0r-36,-40r44,-40r260,0xm398,-640r-240,0r-77,-30r5,-50r320,0r36,40xm156,-620r-19,190r-66,60r-18,-20r26,-260xm397,-430r21,-210r33,-30r45,50r-23,230r-22,20xm123,-290r-21,210r-38,80v-26,-7,-41,-23,-45,-50r28,-280r22,-20"},"q":{"d":"449,-350r18,20r-24,240r-72,-80r12,-120xm344,0r-280,0v-26,-7,-41,-23,-45,-50r83,-30r170,0xm21,-70r26,-260r22,-20r54,60r-19,190xm398,-640r-239,0r-77,-30v9,-27,28,-43,55,-50r299,0xm156,-620r-19,190r-66,60r-18,-20r26,-260xm397,-430r21,-210r38,-80v26,7,41,23,45,50r-28,280r-22,20xm272,-180r60,0r117,130r-6,60r-60,0r-117,-130","w":530},"r":{"d":"394,-400r36,40r-44,40r-260,0r-36,-40r44,-40r260,0xm144,-300r60,0r234,260v-16,27,-44,40,-84,40r-216,-240xm123,-290r-21,210r-38,80v-26,-7,-41,-23,-45,-50r28,-280r22,-20xm398,-640r-239,0r-77,-30v9,-27,28,-43,55,-50r299,0xm397,-430r21,-210r38,-80v26,7,41,23,45,50r-28,280r-22,20xm156,-620r-19,190r-66,60r-18,-20r26,-260"},"s":{"d":"394,-400r36,40r-44,40r-260,0r-36,-40r44,-40r260,0xm449,-350r18,20r-28,280v-9,27,-28,43,-55,50r-22,-80r21,-210xm364,0r-300,0v-26,-7,-41,-23,-45,-50r83,-30r240,0xm156,-620r-19,190r-66,60r-18,-20r26,-260xm159,-640r-77,-30v9,-27,28,-43,55,-50r319,0v26,7,41,23,45,50r-83,30r-259,0"},"t":{"d":"258,-350r36,40r-26,260v-9,27,-28,43,-55,50r-22,-80r23,-230xm224,-410r21,-210r80,0r-21,210r-44,40xm158,-640r-77,-30v9,-27,28,-43,55,-50r319,0v26,7,41,23,45,50r-83,30r-259,0","w":519},"u":{"d":"449,-350r18,20r-28,280v-9,27,-28,43,-55,50r-22,-80r21,-210xm364,0r-300,0v-26,-7,-41,-23,-45,-50r83,-30r240,0xm21,-70r26,-260r22,-20r54,60r-19,190xm397,-430r21,-210r38,-80v26,7,41,23,45,50r-28,280r-22,20xm70,-360r-18,-20r28,-280v9,-27,28,-43,55,-50r22,80r-21,210"},"v":{"d":"70,-360r-18,-20r28,-280v9,-27,28,-43,55,-50r22,80r-21,210xm396,-420r21,-210r38,-80v26,7,41,23,45,50r-28,280r-22,20xm226,-120r-12,120r-174,-260r6,-60r22,-20r54,60xm382,-280r66,-60r18,20r-6,60r-226,260r12,-120"},"w":{"d":"274,-100r-80,0r23,-230r44,-40r36,40xm397,-430r21,-210r38,-80v26,7,41,23,45,50r-28,280r-22,20xm364,0r-299,0v-26,-7,-41,-23,-45,-50r83,-30r239,0xm21,-70r26,-260r22,-20r54,60r-19,190xm449,-350r18,20r-28,280v-9,27,-28,43,-55,50r-22,-80r21,-210xm71,-370r-18,-20r28,-280v9,-27,28,-43,55,-50r22,80r-21,210"},"x":{"d":"269,-350r45,0r123,310v-16,27,-44,40,-84,40r-95,-242xm283,-478r143,-242v40,0,65,13,76,40r-185,310r-45,0xm237,-242r-143,242v-40,0,-65,-13,-76,-40r185,-310r45,0xm251,-370r-45,0r-123,-310v16,-27,44,-40,84,-40r95,243"},"y":{"d":"394,-400r36,40r-44,40r-260,0r-36,-40r44,-40r260,0xm449,-350r18,20r-28,280v-9,27,-28,43,-55,50r-22,-80r21,-210xm364,0r-300,0v-26,-7,-41,-23,-45,-50r83,-30r240,0xm159,-650r-22,220r-66,60r-18,-20r29,-290xm397,-430r21,-210r38,-80v26,7,41,23,45,50r-28,280r-22,20"},"z":{"d":"394,0r-280,0r48,-80r210,0xm358,-640r-199,0r-77,-30v9,-27,28,-43,55,-50r269,0xm267,-430r159,-290v40,0,65,13,76,40r-181,310r-60,0xm263,-290r-169,290v-40,0,-65,-13,-76,-40r191,-310r60,0"},"{":{"d":"141,-70r22,-220r66,-60r18,20r-23,230xm348,-640r-69,0r-77,-30v9,-27,28,-43,55,-50r139,0r18,20xm276,-620r-23,230r-22,20r-54,-60r22,-220xm346,-20r-22,20r-139,0v-26,-7,-41,-23,-45,-50r83,-30r69,0xm164,-400r36,40r-44,40r-70,0r-36,-40r44,-40r70,0","w":430},"|":{"d":"99,-50v-9,27,-28,43,-55,50r-22,-80r56,-560r38,-80v26,7,41,23,45,50","w":180},"}":{"d":"154,-100r23,-230r22,-20r54,60r-22,220xm84,-700r22,-20r139,0v26,7,41,23,45,50r-83,30r-69,0xm289,-650r-22,220r-66,60r-18,-20r23,-230xm82,-80r69,0r77,30v-9,27,-28,43,-55,50r-139,0r-18,-20xm344,-400r36,40r-44,40r-70,0r-36,-40r44,-40r70,0","w":430},"~":{"d":"302,-480r36,40r-44,40r-40,0r-36,-40r44,-40r40,0xm142,-479r36,40r-44,40r-40,0r-36,-40r44,-40r40,0xm462,-480r36,40r-44,40r-40,0r-36,-40r44,-40r40,0xm228,-540r36,40r-44,40r-40,0r-36,-40r44,-40r40,0xm375,-410r36,40r-44,40r-40,0r-36,-40r44,-40r40,0","w":540},"\u2030":{"d":"283,-399r-176,159v-40,1,-58,-19,-53,-59r208,-190r30,0xm168,-640v-35,-4,-57,-21,-87,-30v9,-27,28,-43,55,-50r70,0xm156,-620r-6,60r-38,80v-26,-7,-41,-23,-45,-50r12,-120xm170,-560v35,4,57,21,87,30v-9,27,-28,43,-55,50r-70,0xm182,-580r6,-60r38,-80v26,7,41,23,45,50r-12,120xm420,-160v-35,-4,-57,-21,-87,-30v9,-27,28,-43,55,-50r70,0xm409,-140r-6,60r-38,80v-26,-7,-41,-23,-45,-50r12,-120xm422,-80v35,4,57,21,87,30v-9,27,-28,43,-55,50r-70,0xm434,-100r6,-60r38,-80v26,7,41,23,45,50r-12,120xm204,-100r6,-60r38,-80v26,7,41,23,45,50r-12,120xm192,-79v35,4,57,21,87,30v-9,27,-28,43,-55,50r-70,0xm178,-140r-6,60r-38,80v-26,-7,-41,-23,-45,-50r12,-120xm190,-160v-35,-4,-57,-21,-87,-30v9,-27,28,-43,55,-50r70,0xm307,-531r176,-159v40,-1,58,19,53,59r-208,191r-30,-1","w":590},"\u2018":{"d":"146,-520r-80,0r16,-160r44,-40r36,40","w":180},"\u2019":{"d":"150,-560r-44,40r-36,-40r16,-160r80,0","w":180},"\u201c":{"d":"146,-521r-80,0r16,-160r44,-40r36,40xm306,-520r-80,0r16,-160r44,-40r36,40","w":340},"\u201d":{"d":"150,-560r-44,40r-36,-40r16,-160r80,0xm311,-561r-44,40r-36,-40r16,-160r80,0","w":341},"\u2022":{"d":"211,-510v77,0,138,66,130,145v-7,75,-79,145,-159,145v-77,0,-139,-66,-131,-145v7,-75,80,-145,160,-145","w":390},"\u2013":{"d":"454,-400r36,40r-44,40r-360,0r-36,-40r44,-40r360,0","w":540},"\u2014":{"d":"494,-400r36,40r-44,40r-400,0r-36,-40r44,-40r400,0","w":580},"\u00a9":{"d":"424,0r-360,0v-26,-7,-41,-23,-45,-50r83,-30r300,0xm458,-640r-299,0r-77,-30v9,-27,28,-43,55,-50r359,0xm104,-100r-83,30r58,-580r77,30xm499,-50v-9,27,-28,43,-55,50r-22,-80r56,-560r38,-80v26,7,41,23,45,50xm392,-480r-130,0r-77,-30v9,-27,28,-43,55,-50r190,0xm260,-460r-22,220r-38,80v-26,-7,-41,-23,-45,-50r28,-280xm258,-240r60,0r77,30v-9,27,-28,43,-55,50r-120,0","w":580},"\u00a0":{"w":300}}});
